tree
version=v4
num_class=1
num_tree_per_iteration=1
label_index=0
max_feature_idx=18
objective=binary sigmoid:1
feature_names=freq_total monetary_total avg_order_value return_count recency_at_cutoff tenure_days freq_30d monetary_30d avg_order_30d uniq_items_30d freq_90d monetary_90d avg_order_90d uniq_items_90d freq_180d monetary_180d avg_order_180d uniq_items_180d return_rate
feature_infos=[1:116] [157:1911783045] [157:157986450] none [0:290] [0:292] [0:17] [0:237470016] [0:87000000] [0:395] [0:47] [0:660977390] [0:157986450] [0:734] [0:79] [0:1212686781] [0:157986450] [0:937] none
tree_sizes=3208 3027 2931 3005 3347 3026 3134 3364 3050 3125 3126 3356 3374 3371 3255 3162 3336 3371 3171 3370

Tree=0
num_leaves=30
num_cat=0
split_feature=4 0 4 1 5 5 17 4 12 17 5 0 1 4 2 4 2 4 2 1 5 17 4 11 15 2 0 1 2
split_gain=293.58 75.171 63.0056 58.4908 27.217 23.0761 10.9113 8.99544 7.48601 6.78272 5.69014 5.39825 4.4659 4.24153 4.11421 4.02984 3.33154 5.84225 3.72414 2.64442 3.40191 2.36057 2.34821 2.11723 2.09448 1.41925 1.0375 0.848049 0.264248
threshold=60.500000000000007 5.5000000000000009 1.5000000000000002 1179706.0000000002 34.500000000000007 48.500000000000007 12.500000000000002 18.500000000000004 97116.111111111124 37.500000000000007 30.500000000000004 2.5000000000000004 523597.50000000006 105.50000000000001 134950.98428792573 142.50000000000003 12403.235714285716 113.50000000000001 7481.5375000000013 189855.50000000003 8.5000000000000018 26.500000000000004 210.00000000000003 857453.50000000012 828598.00000000012 22765.137472766888 6.5000000000000009 2180287.5000000005 16878.205797101455
decision_type=2 2 2 2 2 2 2 2 2 2 2 2 2 2 2 2 2 2 2 2 2 2 2 2 2 2 2 2 2
left_child=1 2 -1 6 7 14 16 -4 11 27 15 -6 -9 -12 -5 28 18 -18 22 -19 -21 -3 -2 24 -13 -22 -23 -7 -8
right_child=3 21 4 5 8 9 10 12 -10 -11 13 23 -14 -15 -16 -17 17 19 -20 20 25 26 -24 -25 -26 -27 -28 -29 -30
leaf_value=-0.50154461743992396 -0.18652528120332781 -0.44147844880516479 -0.3465329039526911 -0.31632487096852463 -0.34491640740573598 -0.33873672390618409 -0.25315968372243181 -0.29094192093538068 -0.31842349124064567 -0.44478019896094351 -0.26656087935434364 -0.40242334763234844 -0.21382300036862095 -0.34198526226570253 -0.23803180875661772 -0.1968139752691172 -0.25938006066342023 -0.14543795401293785 -0.28801384044520639 -0.23402975238938631 -0.1482359739360789 -0.46156786978044129 -0.25229100543235483 -0.3777254304329139 -0.45880022178650248 -0.20029398206820351 -0.49955856818434635 -0.37571203527464714 -0.27985082936222994
leaf_weight=30.375953763723373 12.636396765708925 12.150381505489348 13.60842728614807 12.393389135599138 17.73955699801445 12.393389135599138 13.608427286148073 15.066473066806795 17.253541737794876 14.33745017647743 17.25354173779488 17.982564628124241 16.524518847465515 12.636396765708922 15.795495957136152 14.33745017647743 15.552488327026365 13.122412025928496 12.150381505489348 20.655648559331894 12.393389135599138 13.122412025928496 12.393389135599135 14.580457806587217 12.393389135599135 17.73955699801445 66.341083019971848 13.60842728614807 12.150381505489348
leaf_count=125 52 50 56 51 73 51 56 62 71 59 71 74 68 52 65 59 64 54 50 85 51 54 51 60 51 73 273 56 50
internal_value=-0.337406 -0.415051 -0.372598 -0.26216 -0.341115 -0.341032 -0.23316 -0.279257 -0.376241 -0.38963 -0.26491 -0.392316 -0.250024 -0.298689 -0.271903 -0.240138 -0.214274 -0.202235 -0.240567 -0.188629 -0.20034 -0.486895 -0.218222 -0.41074 -0.426075 -0.177997 -0.493574 -0.358543 -0.265091
internal_weight=502.297 247.139 155.525 255.158 125.149 68.5282 186.63 45.1994 79.9495 40.3393 69.9862 62.696 31.591 29.8899 28.1889 40.0963 116.644 79.4635 37.1802 63.911 50.7886 91.6139 25.0298 44.9564 30.376 30.1329 79.4635 26.0018 25.7588
internal_count=2067 1017 640 1050 515 282 768 186 329 166 288 258 130 123 116 165 480 327 153 263 209 377 103 185 125 124 327 107 106
is_linear=0
shrinkage=1


Tree=1
num_leaves=28
num_cat=0
split_feature=4 0 4 15 5 5 17 4 17 12 5 0 0 7 11 4 2 4 2 2 5 2 15 9 2 0 4
split_gain=239.228 64.3498 53.3766 40.1563 22.0512 16.0317 13.7252 7.16965 6.90249 7.50708 6.00483 4.83467 4.6874 4.45904 4.12619 3.21276 6.56241 2.86687 3.4397 3.9751 3.43509 2.65615 2.30443 2.11549 1.43285 1.15632 0.773659
threshold=60.500000000000007 5.5000000000000009 1.5000000000000002 828598.00000000012 34.500000000000007 48.500000000000007 31.500000000000004 17.500000000000004 43.500000000000007 117881.1830024814 18.500000000000004 2.5000000000000004 3.5000000000000004 103343.00000000001 520557.00000000006 180.50000000000003 29106.140350877195 117.50000000000001 12113.836299892127 19361.398989898993 6.5000000000000009 2939.2423691860472 828598.00000000012 5.5000000000000009 38902.170138888898 2.5000000000000004 9.5000000000000018
decision_type=2 2 2 2 2 2 2 2 2 2 2 2 2 2 2 2 2 2 2 2 2 2 2 2 2 2 2
left_child=1 2 -1 6 7 -5 10 -4 9 11 17 -6 -7 -10 -9 16 25 -2 21 -20 -21 -19 -13 -3 -22 -12 -25
right_child=3 23 4 5 8 12 -8 14 13 -11 15 22 -14 -15 -16 -17 -18 18 19 20 24 -23 -24 26 -26 -27 -28
leaf_value=-0.15288726603721653 0.074659713875185454 -0.11000878851570217 -0.0096045992079846348 0.05491388752070539 0.013955672585327403 -0.018659369711048247 0.013168775003777271 0.038428717625075604 -0.1098864390958228 0.049301008648556889 0.07401666413653249 -0.029848670935306455 -0.098316839088557401 -0.028106294528195977 0.11141224822014553 0.021183978835599904 0.14187552711417162 0.12273814357873135 0.17075685178254416 0.15793155622796592 0.11465210808957603 0.061959665307401504 -0.092466426707929317 -0.15658943674976425 0.074050874368001771 0.030845832661769015 -0.12461727937883223
leaf_weight=29.364336282014847 24.105322048068047 23.399057850241661 13.102688938379286 21.108453318476677 12.380303323268889 15.426625460386278 22.759882733225822 15.419206812977789 15.883578360080721 13.894803553819655 13.492652401328089 12.491189971566202 14.875945553183554 12.269477590918539 17.049802228808403 12.524608641862867 12.230782210826872 12.827725574374197 17.371817380189896 14.086148038506506 25.230214387178421 19.931551024317741 12.456100612878798 48.517537444829941 17.735704600811005 13.967305108904837 16.962288171052933
leaf_count=125 98 99 54 86 51 64 93 63 66 57 55 52 62 51 69 51 50 52 70 57 102 81 52 206 72 57 72
internal_value=0.000137157 -0.0709669 -0.031806 0.0672846 -0.00317067 -0.0115988 0.0869907 0.0521171 -0.0350644 -0.0129129 0.0960802 -0.0364084 -0.058288 -0.0748251 0.0772846 0.0666511 0.0806579 0.107649 0.114898 0.127191 0.113475 0.0863644 -0.0617571 -0.138733 0.0983356 0.0526126 -0.148662
internal_weight=500.865 243.19 154.311 257.675 124.947 51.411 206.264 45.5717 79.3755 51.2224 183.504 37.3276 30.3026 28.1531 32.469 52.2153 39.6907 131.288 107.183 74.4239 57.0521 32.7593 24.9473 88.8789 42.9659 27.46 65.4798
internal_count=2067 1017 640 1050 515 212 838 186 329 212 745 155 126 117 132 213 162 532 434 301 231 133 104 377 174 112 278
is_linear=0
shrinkage=0.1


Tree=2
num_leaves=27
num_cat=0
split_feature=0 9 17 5 17 15 0 0 5 16 2 1 1 16 2 15 10 7 8 1 5 17 1 15 14 2
split_gain=177.275 58.3214 31.2861 22.273 9.56563 8.97203 7.86802 5.90584 12.3082 5.87181 4.61569 5.41333 4.54941 8.04811 4.1321 3.10668 2.89153 2.66098 2.36277 2.31572 2.28435 2.21487 1.72556 1.70931 1.51252 0.723776
threshold=3.5000000000000004 2.5000000000000004 20.500000000000004 30.500000000000004 48.500000000000007 764353.50000000012 6.5000000000000009 2.5000000000000004 8.5000000000000018 39274.260622529655 12403.235714285716 1146386.5000000002 1557197.5000000002 23312.513950892859 128776.67609532982 58778.000000000007 1.0000000180025095e-35 280402.00000000006 32102.526315789477 470031.50000000006 221.50000000000003 8.5000000000000018 269782.00000000006 4537.5000000000009 3.5000000000000004 25930.586363636368
decision_type=2 2 2 2 2 2 2 2 2 2 2 2 2 2 2 2 2 2 2 2 2 2 2 2 2 2
left_child=1 3 5 9 12 -2 18 8 -3 10 15 19 13 16 -11 23 -5 -10 24 21 -8 22 -12 -1 -4 -21
right_child=2 7 6 4 -6 -7 20 -9 17 14 11 -13 -14 -15 -16 -17 -18 -19 -20 25 -22 -23 -24 -25 -26 -27
leaf_value=0.064580915527092136 0.059857935717919156 -0.10554014587943637 -0.088555151140488439 0.043261071896284968 -0.059471946913837573 -0.04603706237206006 -0.097570596911298296 -0.095627395172872748 0.045125444330341775 0.014087326754693305 0.1285692055863816 0.043766067480800468 -0.0049072598988202012 0.09680077025207344 0.082928014323769811 0.031547313594321828 -0.019551625964184485 -0.016354725979354175 -0.12247259408952603 0.15612674206684007 -0.14288895608956889 0.065508071498526416 0.078269537832449471 0.11332256632437124 -0.05003821221457852 0.11704922474955862
leaf_weight=23.56100207567215 14.376957863569258 13.397372782230375 22.926164090633392 16.028423234820366 13.351578548550604 17.775164425373077 17.611554965376854 18.321657180786133 12.351482108235361 21.751352399587631 23.404118463397026 14.86514602601528 22.280832320451736 20.606417551636696 15.019745931029318 20.044337242841721 13.10042190551758 15.823348760604857 11.600254803895949 12.680450707674028 52.474637821316719 17.376035377383232 12.470627397298811 12.362056642770765 22.712367326021194 18.917936503887177
leaf_count=95 59 58 97 65 56 75 77 78 51 88 94 60 92 84 61 81 54 66 50 51 232 70 50 50 97 76
internal_value=4.75442e-05 0.0410995 -0.0867941 0.0604082 0.0177169 0.00104306 -0.109037 -0.0482495 -0.0269498 0.0792741 0.087833 0.100957 0.0322288 0.0490424 0.0426263 0.0641332 0.0146993 0.010308 -0.0808098 0.110796 -0.131799 0.0969175 0.111628 0.0818998 -0.0697568 0.13349
internal_weight=497.191 337.714 159.477 277.82 85.3677 32.1521 127.325 59.8939 41.5722 192.453 155.682 99.7143 72.0161 49.7353 36.7711 55.9674 29.1288 28.1748 57.2388 84.8492 70.0862 53.2508 35.8747 35.9231 45.6385 31.5984
internal_count=2067 1380 687 1127 351 134 553 253 175 776 627 401 295 203 149 226 119 117 244 341 309 214 144 145 194 127
is_linear=0
shrinkage=0.1


Tree=3
num_leaves=28
num_cat=0
split_feature=4 0 4 1 5 5 2 15 15 12 4 4 4 15 0 1 2 2 5 0 0 2 2 2 4 4 4
split_gain=165.44 49.2319 43.8414 33.7163 14.8472 13.6773 5.22351 6.80997 6.05664 5.06778 4.97085 4.88119 3.79494 3.68082 3.04686 2.95531 2.81381 2.69342 2.31112 2.03815 1.87988 1.83684 2.82442 1.70469 1.08742 0.763336 0.259937
threshold=60.500000000000007 5.5000000000000009 1.5000000000000002 1179706.0000000002 34.500000000000007 48.500000000000007 12403.235714285716 58778.000000000007 173291.00000000003 97116.111111111124 128.50000000000003 17.500000000000004 190.50000000000003 887576.00000000012 2.5000000000000004 523597.50000000006 134950.98428792573 18689.414312617704 12.500000000000002 3.5000000000000004 6.5000000000000009 28829.584615384618 16091.957070707072 26085.356252106507 225.50000000000003 9.5000000000000018 22.500000000000004
decision_type=2 2 2 2 2 2 2 2 2 2 2 2 2 2 2 2 2 2 2 2 2 2 2 2 2 2 2
left_child=1 2 -1 6 11 16 7 12 -9 14 18 -4 -2 -7 -6 -13 -5 -12 -8 -15 -3 22 -16 -19 -25 -22 -27
right_child=3 20 4 5 9 13 10 8 -10 -11 17 15 -14 19 21 -17 -18 23 -20 -21 25 -23 -24 24 -26 26 -28
leaf_value=-0.14089420211846287 0.11428866998737185 -0.086559943390760605 -0.0074975994471060577 0.010391610292117734 -0.0061087458946673598 0 0.040595055674829274 -0.025028270235367384 0.061754397138377298 0.019249496110945525 0.14290140490182265 0.031207284290431937 0.050469802206724715 -0.035668155279627863 -0.073619700910321648 0.092853150842140464 0.074487927002160018 0.067468087020698994 0.08671143474661179 -0.093480269504962757 -0.14082840538454944 -0.084549459752638889 -0.0088700744945448672 0.1226263391778903 0.083516190701014903 -0.096263176291530278 -0.12663791018685036
leaf_weight=27.542494460940361 19.430471494793892 14.124080970883368 13.042376294732092 12.577867969870569 17.670122295618057 13.160436749458311 24.154576554894447 15.328845888376238 16.491922691464424 17.228623002767563 16.67844220995903 15.540891066193579 19.924966529011726 13.147067010402681 13.056345373392107 17.225329011678696 16.19011364877224 18.460623726248741 22.298467189073563 13.10063800215721 41.452357634902 15.284805431962011 14.691924110054968 22.711417317390442 15.480209723114966 12.018784850835802 14.7255602478981
leaf_count=125 78 63 54 51 73 54 97 62 67 71 67 63 80 55 56 69 65 74 90 57 192 66 63 91 62 55 67
internal_value=0 -0.0610131 -0.0270302 0.0550079 -0.00151202 -0.00522021 0.0765542 0.0545937 0.0196883 -0.0281364 0.0894634 0.0435275 0.0824416 -0.0435752 -0.0417593 0.0641029 0.0469434 0.105928 0.0630854 -0.0651479 -0.123234 -0.0561182 -0.0398507 0.0946347 0.107294 -0.130545 -0.11377
internal_weight=492.74 233.604 151.283 259.136 123.74 68.1761 190.96 71.1762 31.8208 77.9318 119.784 45.8086 39.3554 39.4081 60.7032 32.7662 28.768 73.3307 46.453 26.2477 82.3208 43.0331 27.7483 56.6523 38.1916 68.1967 26.7443
internal_count=2067 1017 640 1050 515 282 768 287 129 329 481 186 158 166 258 132 116 294 187 112 377 185 119 227 153 314 122
is_linear=0
shrinkage=0.1


Tree=4
num_leaves=31
num_cat=0
split_feature=0 7 17 1 5 0 5 17 17 16 7 16 1 2 2 1 2 2 5 8 11 2 5 15 5 5 1 16 2 11
split_gain=122.425 38.027 24.8178 16.3204 8.19535 6.39388 6.24386 5.30287 4.77517 4.45218 5.00404 3.45627 7.91103 4.1572 3.20392 2.78241 2.34302 2.32905 2.20668 2.01706 2.92054 2.0726 1.78977 1.73863 1.67371 3.04141 5.66756 1.65611 1.27968 0.969705
threshold=3.5000000000000004 11854.500000000002 20.500000000000004 1279511.0000000002 48.500000000000007 6.5000000000000009 181.50000000000003 8.5000000000000018 29.500000000000004 40975.822727272731 194449.00000000003 15427.780361757108 252634.00000000003 36914.216666666674 128776.67609532982 412759.50000000006 23420.596955128207 3550.6116883116888 221.50000000000003 32102.526315789477 816970.00000000012 17704.266922094514 26.500000000000004 97606.500000000015 8.5000000000000018 4.5000000000000009 206938.50000000003 8613.9020618556715 18689.414312617704 1518348.0000000002
decision_type=2 2 2 2 2 2 2 2 2 2 2 2 2 2 2 2 2 2 2 2 2 2 2 2 2 2 2 2 2 2
left_child=1 3 6 7 14 19 -2 17 -6 10 -3 12 23 15 -5 -13 -12 -1 -7 20 21 -4 -17 -9 25 -19 -27 28 -26 -11
right_child=2 9 5 4 8 18 -8 11 -10 29 16 13 -14 -15 -16 22 -18 24 -20 -21 -22 -23 -24 -25 27 26 -28 -29 -30 -31
leaf_value=0.04187240874627992 0.052957201696567396 -0.013786072988974184 -0.05160113492269186 0.0020960358132592889 0.00027763934497619121 -0.08335402565946759 -0.03603735693699648 0.087511668756004996 -0.083415387898202908 -0.018744648375255996 -0.11563201127180607 0.040042990892881096 -0.021814034377068869 0.013658459949429533 0.065692475768681036 0.11757109687954906 -0.050458813227427117 0.11025928598768649 -0.12925980627133804 -0.11005912152871089 -0.023970488006513201 -0.10816427227259205 0.066029393966955771 0.034901594953758219 0.10946916665906653 0.09788980405309472 0.0076726405265523205 0.1332738460550148 0.06706447137052389 0.021287277371742915
leaf_weight=15.205230966210364 14.110984385013582 18.933951586484909 14.973042607307436 14.563981890678404 15.197382256388666 16.389827981591225 17.562678307294846 13.383428886532785 11.923628613352774 12.31851549446583 11.831248804926874 14.430581316351889 19.375822618603706 13.441168487071989 18.209845677018166 17.20329208672047 12.247876748442648 13.387927100062369 47.452343925833702 10.890195801854132 15.544922843575476 13.555967852473257 14.060675278306006 13.854103580117224 15.596905171871184 13.399280905723574 14.962474614381788 12.398717671632765 18.441914692521095 11.675945326685904
leaf_count=61 58 82 65 59 63 77 76 54 51 53 52 58 79 54 73 69 54 54 232 50 69 60 57 56 63 54 60 50 74 50
internal_value=-5.32411e-05 0.0334934 -0.0750067 0.0502934 0.00408113 -0.0959626 0.00333791 0.0634719 -0.0363215 -0.0337846 -0.0530024 0.0474101 0.0265905 0.0635797 0.0378281 0.0779839 -0.083241 0.0797414 -0.11778 -0.0702719 -0.0599876 -0.0791111 0.094994 0.0613434 0.0861026 0.0703513 0.0508405 0.0998674 0.0870514 0.000327756
internal_weight=486.524 336.044 150.48 269.036 59.8948 118.806 31.6737 209.142 27.121 67.0075 43.0131 105.749 46.6134 59.1357 32.7738 45.6945 24.0791 103.392 63.8422 54.9641 44.0739 28.529 31.264 27.2375 88.1872 41.7497 28.3618 46.4375 34.0388 23.9945
internal_count=2067 1380 687 1089 246 553 134 843 114 291 188 427 189 238 132 184 106 416 309 244 194 125 126 110 355 168 114 187 137 103
is_linear=0
shrinkage=0.1


Tree=5
num_leaves=28
num_cat=0
split_feature=4 5 17 4 0 1 17 5 5 4 4 5 16 5 17 15 5 1 4 15 2 5 4 4 4 1 4
split_gain=123.707 54.8283 21.2776 10.0765 10.2282 7.91149 9.57452 7.21238 7.16226 6.11202 5.84344 5.4213 5.92586 7.77781 8.49874 4.81697 4.18224 3.45632 2.705 2.05839 3.51424 1.74254 2.15213 5.26399 2.3807 1.60386 1.48489
threshold=10.500000000000002 65.500000000000014 38.500000000000007 1.5000000000000002 6.5000000000000009 1384611.0000000002 11.500000000000002 201.50000000000003 142.50000000000003 69.500000000000014 87.500000000000014 2.5000000000000004 9519.5252100840353 7.5000000000000009 11.500000000000002 575395.50000000012 18.500000000000004 6129759.0000000009 86.500000000000014 380982.00000000006 31906.46808084851 7.5000000000000009 244.50000000000003 210.00000000000003 186.50000000000003 1802986.5000000002 119.50000000000001
decision_type=2 2 2 2 2 2 2 2 2 2 2 2 2 2 2 2 2 2 2 2 2 2 2 2 2 2 2
left_child=3 11 5 -1 8 6 -3 10 -5 17 -7 -2 18 -14 26 -8 19 25 -13 -16 -21 -20 23 24 -23 -4 -15
right_child=1 2 9 4 -6 7 15 -9 -10 -11 -12 12 13 14 16 -17 -18 -19 21 20 -22 22 -24 -25 -26 -27 -28
leaf_value=-0.13279617240402314 0.11449593960718391 0.091558395582347879 -0.096366173877362904 -0.082035599955254501 -0.1290251090814932 0.043808230815876155 -0.022565782482497972 -0.08026335284076011 0.018016935430765664 -0.0047650139312114207 -0.045196183393691233 0.1121780743862717 -0.022336728837872962 0.070141728750355334 0.0074964540792962983 0.0551297711412745 -0.01290034027294624 -0.13330320971529452 0.094319670932412544 0.088251606683042549 0.024200478395036737 0.065319558670759684 0.030383768802758289 0.10749755008853307 0.011916478570302626 -0.049494397918615325 0.12349100572906993
leaf_weight=50.268601402640343 15.089032158255575 18.520141869783401 13.211701035499571 13.487043693661692 16.564997360110283 16.807299569249157 24.016355574131012 14.775737956166266 14.790032491087912 12.217229932546614 12.947589471936224 13.113200113177298 19.094078958034515 12.40897558629513 12.350902482867239 11.803843349218367 17.57445552945137 11.645585432648657 15.344356834888456 17.333127781748772 18.138323426246643 20.319660499691963 24.59614335000515 20.550002962350845 15.093478560447691 20.78341281414032 12.315240547060965
leaf_count=250 61 75 60 57 85 72 99 66 65 53 54 53 77 50 50 50 72 56 62 70 73 82 99 83 61 97 50
internal_value=0.000345915 0.0253061 -0.0203849 -0.10183 -0.0666759 0.00771825 0.0333738 -0.0233696 -0.0294727 -0.0685122 0.0047221 0.0560366 0.0518982 0.0351923 0.0475031 0.00284107 0.0283252 -0.0853099 0.0684952 0.0436793 0.0559403 0.0623075 0.0559767 0.0669724 0.0429378 -0.0682329 0.0975085
internal_weight=485.161 390.05 156.729 95.1107 44.8421 98.871 54.3403 44.5306 28.2771 57.8579 29.7549 233.321 218.232 109.215 90.121 35.8202 65.3968 45.6407 109.017 47.8224 35.4715 95.9036 80.5593 55.9631 35.4131 33.9951 24.7242
internal_count=2082 1625 682 457 207 416 224 192 122 266 126 943 882 442 365 149 265 213 440 193 143 387 325 226 143 157 100
is_linear=0
shrinkage=0.1


Tree=6
num_leaves=29
num_cat=0
split_feature=7 5 0 13 1 2 5 5 17 5 5 15 16 16 1 2 1 11 1 13 11 1 1 1 17 2 16 2
split_gain=86.3833 31.8439 19.8166 12.828 8.81867 9.69698 7.99275 7.29767 6.16184 4.44001 4.17191 3.82283 2.65291 5.08414 2.53572 2.46262 2.31521 2.82444 3.12332 2.25678 2.10983 1.90629 2.34638 1.69489 3.19508 2.02261 3.61055 0.449143
threshold=1.0000000180025095e-35 63.500000000000007 5.5000000000000009 34.500000000000007 1335890.5000000002 24276.197452229302 7.5000000000000009 9.5000000000000018 12.500000000000002 197.50000000000003 104.50000000000001 710156.50000000012 26252.316666666669 74052.3601851852 621869.00000000012 91940.192397660823 652348.50000000012 249372.50000000003 470031.50000000006 22.500000000000004 958.50000000000011 2228060.0000000005 4783132.5000000009 206938.50000000003 2.5000000000000004 2349.9222636815925 6634.0354166666675 6392.039772727273
decision_type=2 2 2 2 2 2 2 2 2 2 2 2 2 2 2 2 2 2 2 2 2 2 2 2 2 2 2 2
left_child=1 11 6 4 5 8 -2 -8 -3 21 -9 15 -12 -14 -10 16 17 18 23 -4 -13 -6 -23 25 -25 -1 27 -27
right_child=2 3 19 -5 9 -7 7 10 14 -11 12 20 13 -15 -16 -17 -18 -19 -20 -21 -22 22 -24 24 -26 26 -28 -29
leaf_value=0.034621071611486996 -0.10330419328516707 0.061627282962577294 -0.077586900223913305 -0.096743705300390656 0.015126863545276564 0.10550752710818878 0.043031104795463071 -0.079552496938814832 -0.049957360632231523 -0.0855770118219049 0.0062804335557404417 0.0012156508190934892 -0.085909901086735421 0.0024385629437564467 0.010642508635431272 0.09562184092314191 0.016730608457370115 0.011178218718805382 0.10237617661294279 -0.12444352831122413 0.046936097233119763 -0.062852205914611589 0 0.011572798253791074 0.068264476358278189 0.079091032159979355 0.039648466405130013 0.10826768175951214
leaf_weight=17.631297513842583 14.230833828449247 12.622082903981207 16.893650949001312 15.891251713037489 13.775137409567831 12.286520197987555 14.056910887360571 16.450635224580765 15.077361747622492 11.358688354492186 20.183608204126358 21.512590408325195 12.840646699070932 12.675205752253531 12.204479634761809 16.336356267333031 16.053612753748894 12.411539793014525 17.422931030392647 38.942825481295586 19.729599416255951 11.670452952384951 11.760355085134504 21.480432987213135 19.342762008309364 16.148141890764236 19.463364869356155 17.974145621061325
leaf_count=71 69 51 86 74 59 50 60 73 62 53 92 87 60 55 52 66 65 50 71 211 80 51 51 87 78 65 79 74
internal_value=0.000256273 0.0284748 -0.0637283 -0.0135366 -0.000231025 0.0281816 -0.0345831 -0.0215006 0.00391854 -0.0309656 -0.0363025 0.0512562 -0.0203755 -0.0417935 -0.0225431 0.0577765 0.0537404 0.0578431 0.0622275 -0.11061 0.0233901 -0.0138404 -0.0312873 0.0558093 0.0387799 0.0653626 0.0752079 0.0950237
internal_weight=478.427 332.153 146.274 116.646 100.755 52.1904 90.4378 76.207 39.9039 48.5646 62.1501 215.507 45.6995 25.5159 27.2818 174.265 157.928 141.875 129.463 55.8365 41.2422 37.2059 23.4308 112.04 40.8232 71.2169 53.5857 34.1223
internal_count=2082 1376 706 503 429 215 409 340 165 214 280 873 207 115 114 706 640 575 525 297 167 161 102 454 165 289 218 139
is_linear=0
shrinkage=0.1


Tree=7
num_leaves=31
num_cat=0
split_feature=9 5 0 13 1 17 1 5 5 5 8 2 2 2 16 2 12 2 2 17 5 1 11 2 15 1 1 13 16 1
split_gain=78.1276 22.9265 15.3244 11.4652 6.98676 5.58721 5.27224 5.20658 10.3622 6.92282 4.53196 4.32035 3.88279 2.94174 2.72473 3.18502 3.99513 2.92797 3.90887 2.13116 4.35361 2.10701 1.31861 0.835703 2.03031 0.758678 1.33479 0.625438 0.463377 0.0656793
threshold=2.5000000000000004 56.500000000000007 5.5000000000000009 34.500000000000007 2228060.0000000005 11.500000000000002 505130.00000000006 8.5000000000000018 34.500000000000007 137.50000000000003 22046.996323529416 223672.00641025646 67145.171875000015 20546.344494047622 39274.260622529655 27675.578947368424 13059.300000000001 18950.583333333339 15185.766666666668 11.500000000000002 7.5000000000000009 626798.50000000012 10132.000000000002 89907.187707641206 33193.500000000007 50247.500000000007 124970.50000000001 22.500000000000004 19021.513339070571 240154.50000000003
decision_type=2 2 2 2 2 2 2 2 2 2 2 2 2 2 2 2 2 2 2 2 2 2 2 2 2 2 2 2 2 2
left_child=1 14 7 4 5 21 -7 -2 -9 -10 -11 12 -6 -8 15 16 17 18 22 20 -16 -3 25 24 -17 -1 -27 -4 -19 -28
right_child=2 3 27 -5 11 6 13 8 9 10 -12 -13 -14 -15 19 23 -18 28 -20 -21 -22 -23 -24 -25 -26 26 29 -29 -30 -31
leaf_value=0.023967300529410998 -0.096357084914437216 0.087251589424195364 -0.088465528444990102 -0.08693340251389356 -0.016944698596638934 -0.052886681872205243 0.049607119620173445 0.046707183561419965 -0.11052432276568341 0.015750147853074783 -0.057899498850082325 0.008721570557465896 -0.099837588604000105 -0.0046001141021753435 0.0036765532112229926 0.040527626083168983 -0.0039359199392112491 0.0066595119186170088 0.11014237373212499 -0.0046342766097920247 0.083581320956970157 0.027902611260608647 0.079479411396665423 0.098241747307844199 0.095287450250795963 0.073316238651475713 0.026608930330239547 -0.119771679733902 0.034112889045898015 0.041695695643112714
leaf_weight=18.340419724583626 13.127030476927755 12.78659972548485 13.637111991643904 16.120787069201469 11.644128903746607 13.283782571554182 17.909863263368607 14.496220514178274 13.307225361466406 14.886638283729551 18.376829206943512 15.296397194266317 11.643601357936857 21.83698508143425 15.696729496121408 17.401337832212452 15.927783906459807 14.670814901590349 12.593824431300161 17.377944067120552 12.359153777360914 12.643096238374708 12.412669405341147 12.49556492269039 12.516420483589171 15.854481637477873 12.557326734066011 35.545369178056717 12.200300186872481 13.037089243531225
leaf_count=75 66 52 73 78 55 55 77 61 62 68 85 67 53 93 65 71 65 60 53 70 50 52 50 51 51 64 51 206 50 53
internal_value=0.000202246 0.0244285 -0.0681338 -0.00812423 0.0027099 0.0199162 0.00121739 -0.0391466 -0.0265476 -0.0496153 -0.0246904 -0.0319814 -0.0590674 0.0196378 0.0445903 0.0504541 0.0423178 0.0490023 0.0581757 0.0223665 0.0394031 0.0583611 0.0488333 0.0745386 0.0640112 0.0421819 0.0499238 -0.111491 0.0195752 0.0348153
internal_weight=471.984 348.607 123.376 133.165 117.044 78.4603 53.0306 74.1939 61.0669 46.5707 33.2635 38.5841 23.2877 39.7468 215.442 170.008 127.595 111.667 84.7958 45.4338 28.0559 25.4297 72.202 42.4133 29.9178 59.7893 41.4489 49.1825 26.8711 25.5944
internal_count=2082 1461 621 582 504 329 225 342 276 215 153 175 108 170 879 694 521 456 346 185 115 104 293 173 122 243 168 279 110 104
is_linear=0
shrinkage=0.1


Tree=8
num_leaves=28
num_cat=0
split_feature=9 5 0 15 5 5 5 17 8 2 11 1 11 12 15 10 12 2 2 1 1 1 2 2 1 2 17
split_gain=65.4663 18.7618 14.2185 9.41147 4.53895 8.53081 6.03835 4.29105 3.77113 3.50243 6.5583 3.24221 2.02623 6.9186 1.83374 1.57299 1.54605 2.16565 2.11244 3.98549 1.94313 2.2462 2.87508 2.42154 1.32774 0.929039 0.467787
threshold=2.5000000000000004 56.500000000000007 5.5000000000000009 834649.50000000012 8.5000000000000018 34.500000000000007 137.50000000000003 18.500000000000004 22046.996323529416 24276.197452229302 53822.500000000007 370424.00000000006 1207752.5000000002 23097.87009803922 710156.50000000012 1.0000000180025095e-35 4184.5777777777794 19522.957142857147 91940.192397660823 652348.50000000012 470031.50000000006 206938.50000000003 20935.434559643258 2349.9222636815925 150925.00000000003 9039.8375420875436 44.500000000000007
decision_type=2 2 2 2 2 2 2 2 2 2 2 2 2 2 2 2 2 2 2 2 2 2 2 2 2 2 2
left_child=1 14 4 9 -2 -6 -7 -5 -8 10 11 -3 13 -9 16 -16 18 -18 19 20 21 23 -23 -1 25 -25 -4
right_child=2 3 26 7 5 6 8 12 -10 -11 -12 -13 -14 -15 15 -17 17 -19 -20 -21 -22 22 -24 24 -26 -27 -28
leaf_value=0.024999091635963318 -0.090627835317496977 -0.0095212741214948209 -0.087327716482542034 0.0069907076379553124 0.041741400092554934 -0.1038901846519571 0.014109588712855673 -0.075255242414896173 -0.053247338368219072 0.051578190627822706 -0.048174299438462111 0.055395594245956303 -0.078884001321121222 0.023676777653958835 0.00084959521627813329 0.040192918214434957 -0.0063840706182266924 0.047324460300809369 0.085671842140177271 -0.0061188012087573414 0.084980438760681856 0.05041580067959206 -0.0050022386600151597 0.075101463169289479 0.098975980292980686 0.038528309114306616 -0.11557944017438944
leaf_weight=17.725014090538025 12.595569878816603 12.411608412861826 14.411625266075133 16.970984891057014 14.604407444596289 12.77556464076042 14.963138207793234 16.905399918556217 18.012531459331512 21.306919738650322 16.414770677685738 19.089669734239578 17.198360741138458 11.828122913837431 20.555089384317398 21.094518452882767 13.023396566510202 16.675444439053535 15.018174871802328 13.290685594081877 15.329509243369101 20.594005391001701 16.515773758292198 16.677999094128609 12.466770023107527 15.408279493451117 31.806383773684502
leaf_count=72 66 51 82 73 61 62 68 80 85 88 72 79 85 54 83 86 53 69 62 54 64 84 67 68 52 65 197
internal_value=0.00014969 0.0221611 -0.0637326 -0.00741241 -0.0359521 -0.0242454 -0.0455725 -0.0354357 -0.0224307 0.0179225 0.00267221 0.0295525 -0.0513099 -0.0342423 0.0404298 0.0210641 0.0450267 0.0234945 0.0494084 0.0450123 0.0510234 0.0456052 0.025536 0.0573435 0.0699027 0.0580235 -0.107193
internal_weight=465.67 346.5 119.169 132.126 72.9512 60.3556 45.7512 62.9029 32.9757 69.223 47.916 31.5013 45.9319 28.7335 214.375 41.6496 172.725 29.6988 143.026 128.008 114.717 99.3878 37.1098 62.2781 44.553 32.0863 46.218
internal_count=2082 1461 621 582 342 276 215 292 153 290 202 130 219 134 879 169 710 122 588 526 472 408 151 257 185 133 279
is_linear=0
shrinkage=0.1


Tree=9
num_leaves=29
num_cat=0
split_feature=4 5 13 4 0 5 4 5 13 15 4 5 12 4 4 4 4 11 2 2 2 2 4 4 15 0 5 9
split_gain=73.9198 24.5398 14.1421 9.97122 7.87043 6.4732 5.51669 4.61131 4.29789 4.20252 3.06905 2.90847 2.90641 2.40006 4.58007 4.19621 4.53614 3.76276 5.49235 6.19519 1.78085 1.71023 1.39616 1.32939 1.24274 1.08605 0.498527 0.132018
threshold=10.500000000000002 63.500000000000007 9.5000000000000018 1.5000000000000002 6.5000000000000009 142.50000000000003 41.500000000000007 2.5000000000000004 34.500000000000007 828598.00000000012 52.500000000000007 5.5000000000000009 29408.010849909588 264.50000000000006 210.00000000000003 190.50000000000003 128.50000000000003 43352.000000000007 13104.938530734633 20935.434559643258 16705.729166666668 22090.702728276301 165.50000000000003 58.500000000000007 409143.00000000006 5.5000000000000009 128.50000000000003 33.500000000000007
decision_type=2 2 2 2 2 2 2 2 2 2 2 2 2 2 2 2 2 2 2 2 2 2 2 2 2 2 2 2
left_child=3 7 6 27 5 -5 -3 -2 10 20 12 -9 -4 14 15 16 17 24 -19 -20 -8 -16 -18 -21 -13 -10 -22 -1
right_child=1 2 8 4 -6 -7 9 11 25 -11 -12 13 -14 -15 21 -17 22 18 19 23 26 -23 -24 -25 -26 -27 -28 -29
leaf_value=-0.12538349593661863 0.094281683173303987 0.080533198966423802 -0.075260654064522342 -0.070254574775628589 -0.11397492000107329 0.027037806322413278 0 -0.0091235240573460039 -0.058345227681537097 -0.033682906155157018 0.010197999285061305 0.02030945923910454 -0.015359560778776402 0.00821418182792189 0.10674446944986112 -0.019989547578896733 0.086301490242265744 0.10278203141131961 -0.033487443946271657 0.032775900016298362 0.054529607959143481 0.05271810734951396 0.04850605538169514 0.075151765215254865 -0.017292051250593465 -0.10458128079259921 0.023963426845526298 -0.097043382428491143
leaf_weight=33.782773196697235 14.535431385040281 11.770479395985602 15.199841246008871 12.794677689671518 12.897361114621161 14.298379108309744 19.958675220608711 13.203480824828146 15.536849677562715 18.572460815310478 15.669348195195196 17.931940749287605 18.468937367200851 23.672920495271683 13.674630448222162 12.104414716362951 21.539437904953957 12.366082429885862 12.107408270239828 21.406955912709236 12.963570669293405 12.71818497776985 22.402175113558769 12.845371440052984 16.947707697749138 9.8270721286535245 12.297986567020414 7.8499696105718604
leaf_count=200 61 51 72 57 85 65 82 55 75 82 70 73 92 97 58 50 89 50 50 88 53 52 93 52 69 60 51 50
internal_value=9.61233e-05 0.0187707 -0.0125337 -0.0861178 -0.0498369 -0.0186301 0.0178654 0.0394919 -0.0433998 0.00603803 -0.0258074 0.0356621 -0.042841 0.038676 0.0427085 0.0357709 0.0407616 0.0280848 0.0435229 0.0273136 0.0226108 0.0813849 0.0674137 0.0491314 0.00175614 -0.0769921 0.0401966 -0.120525
internal_weight=459.345 377.721 150.265 81.6232 39.9904 27.0931 75.5632 227.456 74.702 63.7927 49.3381 212.921 33.6688 199.717 176.044 149.651 137.547 93.6055 58.7258 46.3597 45.2202 26.3928 43.9416 34.2523 34.8796 25.3639 25.2616 41.6327
internal_count=2082 1625 688 457 207 122 319 937 369 268 234 876 164 821 724 614 564 382 240 190 186 110 182 140 142 135 104 250
is_linear=0
shrinkage=0.1


Tree=10
num_leaves=29
num_cat=0
split_feature=4 5 0 4 7 1 1 12 11 11 12 11 4 11 1 7 12 4 5 4 1 1 1 1 16 4 16 7
split_gain=57.1341 34.9562 12.253 7.75599 4.80516 7.49082 8.55588 6.28723 4.11618 3.27727 4.11104 3.05802 2.97967 2.49376 1.85758 1.73029 1.69976 2.66974 1.78954 1.69524 1.66114 3.72933 2.11512 2.05971 1.58869 1.49478 1.12719 0.367942
threshold=3.5000000000000004 61.500000000000007 6.5000000000000009 47.500000000000007 87916.000000000015 1279511.0000000002 699985.00000000012 71498.636363636368 199232.50000000003 269847.00000000006 23630.493636363641 62174.000000000007 1.0000000180025095e-35 1112025.5000000002 299040.50000000006 846079.00000000012 2050.3199300699303 116.50000000000001 18.500000000000004 44.500000000000007 435154.50000000006 198867.00000000003 67717.500000000015 292860.50000000006 25922.061111111117 225.50000000000003 15715.345454545457 1290856.0000000002
decision_type=2 2 2 2 2 2 2 2 2 2 2 2 2 2 2 2 2 2 2 2 2 2 2 2 2 2 2 2
left_child=12 9 4 27 5 6 11 8 -7 16 -11 14 -1 -6 -3 -14 17 26 20 -12 21 22 -19 -23 25 -22 -2 -4
right_child=1 2 3 -5 13 7 -8 -9 -10 10 19 -13 15 -15 -16 -17 -18 18 -20 -21 24 23 -24 -25 -26 -27 -28 -29
leaf_value=-0.12065256783249022 -0.009613024243093838 0.025395584657142298 -0.11814983645422167 -0.0010497855571487086 0 -0.035009823771450219 0.054308576780120722 0.011745023420117403 -0.10162682234134424 -0.032231657287379631 0.057112287963162013 -0.061968410976522149 -0.098576793155165446 0.05615139190647455 -0.029617507579439581 -0.033025226904023368 0.070107134369098198 0.031839176836835383 0.012326592747800118 0.0059207473370763951 0.10151508883276317 -0.013187273569588273 0.079227916058301262 0.038801230673180476 0.037922630493770128 0.053296921624142762 0.030235896034797684 -0.08147637610556642
leaf_weight=32.370303064584732 13.218395739793779 11.967770010232927 16.116044417023662 9.9397927820682508 17.758022338151935 20.256243959069252 22.209238424897194 13.37625567615032 18.34773887693882 13.787827387452124 14.870601683855059 13.382893472909926 8.861689046025278 14.139459848403929 12.328345775604246 8.6986572146415693 22.0473662763834 17.491976082324982 15.1714591383934 12.274124518036841 15.512471288442613 14.963795050978662 23.629693031311035 14.967571809887884 15.654160752892492 13.887546733021734 14.507950380444525 7.4995309859514228
leaf_count=211 54 50 103 48 82 88 93 59 88 57 62 59 51 65 51 50 91 73 62 50 66 62 101 62 64 58 59 50
internal_value=-0.00141013 0.0111866 -0.0218758 -0.0762329 -0.009075 -0.0188869 0.00507501 -0.0466429 -0.0671108 0.0376397 0.0117137 -0.0237471 -0.10217 0.0249754 -0.00211626 -0.0670424 0.0434362 0.0396335 0.0456104 0.0344386 0.0498591 0.03986 0.0594388 0.0125199 0.0652837 0.0793354 0.0109125 -0.107318
internal_weight=449.237 399.306 177.321 33.5554 143.766 111.868 59.8882 51.9802 38.604 221.985 40.9326 37.679 49.9306 31.8975 24.2961 17.5603 181.052 159.005 131.279 27.1447 116.107 71.053 41.1217 29.9314 45.0542 29.4 27.7263 23.6156
internal_count=2069 1757 836 201 635 488 253 235 176 921 169 160 312 147 101 101 752 661 548 112 486 298 174 124 188 124 113 153
is_linear=0
shrinkage=0.1


Tree=11
num_leaves=31
num_cat=0
split_feature=0 13 5 5 12 2 0 5 1 7 13 5 1 1 11 0 15 2 15 15 1 1 2 1 2 2 16 2 11 7
split_gain=47.1256 12.1642 9.18177 8.62647 4.50249 9.48156 4.27508 3.97999 4.15866 4.00865 4.76164 2.73608 3.13903 2.7874 2.4718 1.65514 1.40007 3.02908 2.16873 2.69491 2.37142 1.48854 3.0375 2.19968 2.42521 1.89484 1.19586 0.764179 0.658902 0.59464
threshold=3.5000000000000004 9.5000000000000018 201.50000000000003 123.50000000000001 8752.2037786774654 17704.266922094514 5.5000000000000009 135.50000000000003 1878044.5000000002 152685.00000000003 9.5000000000000018 65.500000000000014 1279511.0000000002 370424.00000000006 110576.00000000001 4.5000000000000009 585315.50000000012 79415.945652173934 193158.00000000003 97606.500000000015 362657.50000000006 498535.50000000006 22090.702728276301 50247.500000000007 6245.0223252560818 52537.34905660378 24220.000000000004 14114.735739750447 935577.00000000012 1313501.5000000002
decision_type=2 2 2 2 2 2 2 2 2 2 2 2 2 2 2 2 2 2 2 2 2 2 2 2 2 2 2 2 2 2
left_child=2 3 4 -2 11 -6 15 8 9 10 -7 16 13 -13 -5 26 18 -18 19 21 -20 22 23 -1 -25 -23 -3 -26 -8 -30
right_child=1 6 -4 14 5 7 28 -9 -10 -11 -12 12 -14 -15 -16 -17 17 -19 20 -21 -22 25 -24 24 27 -27 -28 -29 29 -31
leaf_value=0.015661203714350588 0.064210027158141642 -0.036901126192683174 -0.053283195979792419 -0.06175060661497838 -0.058469344241264098 0.089587806189103697 -0.073960442302997323 0.074230083375407763 -0.032005860922040899 -0.015084423926530609 0.012393675367166618 -0.0098133852327192059 -0.035270133882008357 0.053548346277000447 -0.0020739434049314213 -0.013212478787269406 -0.015039448713517279 0.051623131870948136 0.036519680265244783 -0.0056091521145857776 0.098109002666212364 0.089178474443358302 -0.0068317299116352898 0.091601530887111218 0.017783907414686582 0.034923546611431315 -0.088638214936803253 0.05596494706610209 -0.11669711934709173 -0.084015639924816865
leaf_weight=20.327842593193054 11.254093393683432 10.087374836206438 16.620918989181519 17.718860357999805 18.900930196046829 13.945237323641775 15.01984793692827 11.58491390943527 16.80660592019558 16.163902282714844 19.46057203412056 11.987251415848734 11.956994652748106 15.60745733976364 11.964434042572973 10.561351463198664 14.7088580429554 12.313955679535864 13.907340303063394 14.284365653991697 12.808415666222571 12.715535655617716 15.24010509252548 13.53404128551483 11.928441449999811 15.165288001298903 10.066096261143683 11.236384406685827 20.505711533129215 14.391794204711912
leaf_count=86 48 49 78 78 84 59 95 52 76 82 81 51 52 65 58 51 60 50 58 62 54 54 64 56 50 64 52 50 144 106
internal_value=-0.00134096 -0.0543655 0.0187073 -0.00965704 0.0226848 0.004751 -0.0769003 0.0202615 0.0105943 0.0252745 0.045088 0.030993 0.00699187 0.0257266 -0.0381202 -0.0466624 0.0365708 0.0150475 0.0406071 0.0343806 0.0666763 0.0401841 0.0322299 0.0428377 0.0575358 0.0602551 -0.0635462 0.0368949 -0.0951757 -0.103784
internal_weight=442.775 121.57 321.205 40.9374 304.584 96.8622 80.6322 77.9612 66.3763 49.5697 33.4058 207.722 39.5517 27.5947 29.6833 30.7148 168.171 27.0228 141.148 114.432 26.7158 100.148 72.2668 57.0267 36.6989 27.8808 20.1535 23.1648 49.9174 34.8975
internal_count=2069 681 1388 184 1310 434 497 350 298 222 140 876 168 116 136 152 708 110 598 486 112 424 306 242 156 118 101 100 345 250
is_linear=0
shrinkage=0.1


Tree=12
num_leaves=31
num_cat=0
split_feature=4 0 13 5 5 15 15 15 0 4 4 2 2 12 5 17 5 15 15 5 14 2 2 4 15 16 11 7 15 5
split_gain=46.1337 23.9093 6.62369 6.12118 4.39099 3.80875 5.91269 3.73834 3.51964 3.48916 3.1646 2.84621 2.27081 1.98841 1.90376 1.77302 2.29346 2.1698 1.91011 1.71974 1.71279 1.70877 2.01539 1.67817 1.6329 1.02821 0.918721 1.0405 0.867713 0.579431
threshold=3.5000000000000004 3.5000000000000004 9.5000000000000018 18.500000000000004 124.50000000000001 3973352.5000000005 521590.00000000006 173291.00000000003 5.5000000000000009 88.500000000000014 1.0000000180025095e-35 15387.792553191492 11632.301369863015 27580.650000000005 180.50000000000003 1.5000000000000002 7.5000000000000009 722108.00000000012 375952.50000000006 7.5000000000000009 3.5000000000000004 7481.5375000000013 12403.235714285716 223.50000000000003 75881.000000000015 24220.000000000004 953558.00000000012 1290856.0000000002 4537.5000000000009 115.50000000000001
decision_type=2 2 2 2 2 2 2 2 2 2 2 2 2 2 2 2 2 2 2 2 2 2 2 2 2 2 2 2 2 2
left_child=10 3 4 11 -3 6 7 12 14 -6 -1 21 -5 25 -4 19 -17 18 -18 -13 -12 24 -23 -21 28 -8 -10 -28 -2 -9
right_child=1 2 8 5 9 -7 13 29 26 -11 20 15 -14 -15 -16 16 17 -19 -20 23 -22 22 -24 -25 -26 -27 27 -29 -30 -31
leaf_value=-0.1167784098816584 0.028360793823528477 0.047858301572501732 -0.053866917781647844 0.027332235707241644 0.0091343196172077364 0.058734814073456348 -0.067216766529684266 0.033035484113850731 -0.053643326215435765 -0.063600319351014054 -0.026924802150124907 0.086723519974217927 -0.029809426927484808 -0.0024743285293263024 0.00072472974776290945 0.0018540065781352491 0.035344545024646679 0.021533265838001137 0.089875090609904729 0.068733058195441149 -0.093952830472778748 -0.028002487855543868 0.02742891107004173 0.020303183944970254 0.00022116718545191067 -0.026095489573510405 -0.1125757087893826 -0.057891800699706175 0.065529370010606866 0.064593114344348751
leaf_weight=29.02815892547369 17.258860260248188 11.827404901385306 13.309607282280924 12.194011077284815 13.504582434892656 11.927914202213286 11.693393915891649 16.761207282543186 10.752838529646398 12.387808144092558 8.6729480177164096 16.364984720945358 15.765178099274634 20.365938663482666 11.51679617166519 17.368192821741104 13.64448791742325 23.756299823522568 14.10155665874481 15.032340258359911 7.7878132238984099 13.721634298563005 12.346874505281447 15.248761668801306 12.733215540647505 15.502610638737677 12.345199443399908 6.7073934376239768 11.776840820908545 11.76427513360977
leaf_count=211 72 50 65 51 61 51 53 71 66 54 44 71 65 88 55 72 58 97 60 65 57 56 54 65 52 67 88 50 50 50
internal_value=-0.00126035 0.0097956 -0.0346165 0.0235384 -0.00209241 0.00544827 -0.000615012 0.0211446 -0.0568447 -0.0253905 -0.0964891 0.034917 -0.00452291 -0.0266567 -0.0282397 0.0445254 0.0339021 0.0444914 0.0636413 0.05989 -0.0596164 0.0183668 -0.00136179 0.0448213 0.0308924 -0.0443241 -0.0801628 -0.0942493 0.0439527 0.0465798
internal_weight=437.169 391.68 92.3516 299.329 37.7198 115.975 104.047 56.4847 54.6318 25.8924 45.4889 183.354 27.9592 47.5619 24.8264 115.517 68.8705 51.5023 27.746 46.6461 16.4608 67.8374 26.0685 30.2811 41.7689 27.196 29.8054 19.0526 29.0357 28.5255
internal_count=2069 1757 489 1268 165 496 445 237 324 115 312 772 116 208 120 488 287 215 118 201 101 284 110 130 174 120 204 138 122 121
is_linear=0
shrinkage=0.1


Tree=13
num_leaves=31
num_cat=0
split_feature=5 17 9 1 5 8 17 1 16 17 1 15 2 1 1 11 1 15 15 14 8 13 15 1 1 1 1 2 15 9
split_gain=31.6395 10.7486 5.29846 4.8778 4.21275 4.00463 3.84766 4.19612 5.56955 3.48075 3.24823 3.69536 3.05696 2.69048 2.60483 2.45252 2.37038 4.12714 3.56856 1.54004 1.51155 1.40784 1.12089 1.27251 2.81376 1.86037 1.70433 1.33004 0.976904 0.754781
threshold=197.50000000000003 48.500000000000007 3.5000000000000004 1425063.0000000002 18.500000000000004 6134.0277777777783 12.500000000000002 1020228.5000000001 39274.260622529655 22.500000000000004 1133437.0000000002 164558.00000000003 13688.618220015282 4215199.5000000009 435154.50000000006 140978.00000000003 1771833.0000000002 722108.00000000012 372007.50000000006 4.5000000000000009 23867.440789473691 35.500000000000007 144121.50000000003 67717.500000000015 194554.50000000003 27827.000000000004 314332.50000000006 10428.488970588236 237988.00000000003 36.500000000000007
decision_type=2 2 2 2 2 2 2 2 2 2 2 2 2 2 2 2 2 2 2 2 2 2 2 2 2 2 2 2 2 2
left_child=1 4 9 15 5 16 10 12 -9 -2 11 -6 -8 -10 -7 -3 17 18 22 20 -4 -5 23 25 27 -1 -26 -25 -24 -21
right_child=2 3 19 21 6 14 7 8 13 -11 -12 -13 -14 -15 -16 -17 -18 -19 -20 29 -22 -23 28 24 26 -27 -28 -29 -30 -31
leaf_value=0.043562159765708014 0.0053487638547148721 -0.03524803677952084 -0.029497522574755655 -0.040475875890942772 0.01499337984759294 -0.052968645243043233 0.0008454377244178484 0.049904857758663643 -0.049306616158507614 -0.061418340408246119 -0.0011314910662661372 0.090993120220230289 -0.057787808294535059 0.017599149701189615 0.019949815671360054 0.028481601403010887 0.069473477861801275 -0.020128952378019239 0.076933944461448509 -0.11499755161782509 -0.085608212496388128 -0.093446911862440751 -0.011907280403639723 0.04366913487236837 -0.0066434627891418518 -0.0095638797051562103 0.037895517260123503 0.095219454660830399 0.028128353433167792 -0.067520787246413722
leaf_weight=11.647980630397798 15.266087934374811 11.513047069311144 9.3385783508420008 11.49262121319771 14.538851857185366 9.2990455999970454 14.309531807899473 20.241126641631126 14.031210385262968 15.334611535072325 22.803283497691154 11.959097430109976 22.021162167191505 10.106208100914953 9.905046343803404 12.438164144754408 16.325026273727417 15.145462840795515 17.388258084654808 15.93291472643614 12.046098254621027 10.925336234271525 11.759178176522257 11.752325564622881 11.863998517394064 14.446647226810454 27.821487963199615 10.885894894599913 12.033007413148878 6.5618594437837592
leaf_count=50 69 50 52 59 60 50 61 95 63 90 95 51 98 52 50 58 68 62 75 136 70 65 50 50 50 62 121 50 50 57
internal_value=-0.00118312 0.0111768 -0.0604391 -0.033608 0.0179104 0.0278112 0.00409417 -0.00925849 0.0111959 -0.0278749 0.0261302 0.0498828 -0.0344806 -0.0209239 -0.0149324 -0.00175584 0.0329756 0.028745 0.0345449 -0.0828064 -0.0618218 -0.0670356 0.0278245 0.033043 0.0408862 0.0138443 0.024346 0.0692073 0.00795536 -0.101951
internal_weight=431.133 356.653 74.4802 46.3692 310.284 180.273 130.01 80.7092 44.3785 30.6007 49.3012 26.4979 36.3307 24.1374 19.2041 23.9512 161.069 144.744 129.599 43.8795 21.3847 22.418 112.211 88.4183 62.3237 26.0946 39.6855 22.6382 23.7922 22.4948
internal_count=2069 1595 474 232 1363 788 575 369 210 159 206 111 159 115 100 108 688 620 558 315 122 124 483 383 271 112 171 100 100 193
is_linear=0
shrinkage=0.1


Tree=14
num_leaves=30
num_cat=0
split_feature=4 5 17 5 13 12 12 11 12 16 4 17 11 16 11 17 4 17 4 1 1 1 1 1 1 1 16 4 4
split_gain=37.2816 17.8183 7.28309 4.52499 3.97622 3.71897 3.65879 3.89543 3.23251 2.81094 2.44941 3.39628 2.05205 3.88699 1.66261 3.64465 1.56315 2.07799 1.4579 1.33552 3.15182 2.17843 1.1865 0.821027 1.86461 1.01222 0.567335 0.318395 0.284488
threshold=1.5000000000000002 61.500000000000007 54.500000000000007 197.50000000000003 13.500000000000002 35386.280555555561 26256.075892857149 935577.00000000012 15409.222222222224 6634.0354166666675 108.50000000000001 8.5000000000000018 269847.00000000006 25536.506111111117 43352.000000000007 31.500000000000004 108.50000000000001 12.500000000000002 37.500000000000007 198867.00000000003 292860.50000000006 120335.00000000001 5494966.0000000009 498535.50000000006 750010.00000000012 1878044.5000000002 17637.259075907594 220.50000000000003 33.500000000000007
decision_type=2 2 2 2 2 2 2 2 2 2 2 2 2 2 2 2 2 2 2 2 2 2 2 2 2 2 2 2 2
left_child=-1 12 3 6 -5 -6 8 -8 10 -4 26 -12 14 -14 15 16 -2 19 -15 21 -21 27 28 -22 -25 -26 -3 -18 -11
right_child=1 2 9 4 5 -7 7 -9 -10 22 11 -13 13 18 -16 -17 17 -19 -20 20 23 -23 -24 24 25 -27 -28 -29 -30
leaf_value=-0.10551100115483202 0.002298424106908429 0.040814271366315331 -0.0068904844220095025 0.000261551061066442 -0.024411246160389755 -0.10898625728428418 0.077565918880015336 0.0026098719647684246 -0.049523511973369516 -0.069079845200261294 0.026340125620570521 -0.04069515802414464 -0.032707195960100549 0.05318195143706303 0.057310839445128374 -0.023451805085326419 0.03876052091477615 0.064124222135532427 0.0064133732635115685 -0.023050360627287506 0.01124894536240232 0.078778387467824063 -0.10125598338629507 0.074525801037150771 0.0070714687140980967 0.046935273377200486 0.0093156838164831206 0.013614655830090021 -0.03777976013053113
leaf_weight=31.574116609990597 16.524453938007355 13.743034631013872 9.0477638691663724 17.415664799511433 11.961141407489778 9.7772032395005208 12.335054874420168 16.342227503657341 14.129659637808798 8.7063231319189125 12.057205066084864 19.454779878258705 15.791364416480063 13.22091554105282 21.79291744530201 12.716690421104429 11.556044086813928 21.806603595614433 14.51189775764942 12.884690538048742 15.707203879952429 12.751788288354872 10.034794263541697 11.017453089356421 15.465062111616136 11.712496012449263 11.554327011108397 12.139972135424612 8.3428930044174177
leaf_count=252 69 59 51 82 64 63 54 77 66 60 51 82 67 56 91 52 50 93 60 54 67 59 75 51 65 50 50 52 47
internal_value=-0.00110803 0.00724719 -0.0165263 -0.00601699 -0.0348073 -0.0632331 0.00522226 0.035356 -0.00685122 -0.056485 0.00365492 -0.0147274 0.0262262 0.00647306 0.0310458 0.0272363 0.0318734 0.035697 0.0291794 0.0295392 0.0208044 0.0451704 -0.0725985 0.0314958 0.0395098 0.0247269 0.0269147 0.0264094 -0.0546561
internal_weight=426.076 394.502 174.902 138.77 39.154 21.7383 99.6163 28.6773 70.939 36.1318 56.8093 31.512 219.6 43.5242 176.075 154.282 141.566 125.041 27.7328 103.235 66.7869 36.4478 27.084 53.9022 38.195 27.1776 25.2974 23.696 17.0492
internal_count=2069 1817 881 648 209 127 439 131 308 233 242 133 936 183 753 662 610 541 116 448 287 161 182 233 166 115 109 102 107
is_linear=0
shrinkage=0.1


Tree=15
num_leaves=29
num_cat=0
split_feature=4 5 1 2 11 4 1 1 15 4 1 2 5 5 13 4 1 1 17 4 17 13 5 15 5 7 2 2
split_gain=35.2052 11.7421 7.28514 6.43399 6.03072 4.98409 4.97892 4.85734 4.09188 5.14606 2.94176 2.64602 2.50561 4.19328 3.64184 2.45944 2.23653 2.13618 2.51838 1.95781 1.86685 1.84335 1.83893 1.78908 1.15533 0.742948 0.0481397 0.552034
threshold=3.5000000000000004 225.50000000000003 1279511.0000000002 146839.97165532885 757898.00000000012 60.500000000000007 328675.50000000006 269782.00000000006 526042.00000000012 41.500000000000007 8190032.5000000009 3710.8666666666672 135.50000000000003 20.500000000000004 24.500000000000004 123.50000000000001 530230.50000000012 768855.00000000012 10.500000000000002 1.5000000000000002 19.500000000000004 15.500000000000002 26.500000000000004 183551.50000000003 8.5000000000000018 1656837.5000000002 27395.586397058829 17550.04545454546
decision_type=2 2 2 2 2 2 2 2 2 2 2 2 2 2 2 2 2 2 2 2 2 2 2 2 2 2 2 2
left_child=19 2 5 12 -3 8 7 11 9 -2 -5 -7 13 -4 -14 -13 23 18 -18 26 -19 -15 -10 -8 -17 -6 27 -1
right_child=1 4 3 10 25 6 16 -9 22 -11 -12 15 14 21 -16 24 17 20 -20 -21 -22 -23 -24 -25 -26 -27 -28 -29
leaf_value=-0.11471460609453357 0.0034217118420556423 0.0066352836231238681 0.0055378690010643439 0.047627190350323992 -0.10057221231718082 -0.0033267390004048701 0.039122249423044382 -0.035921921917461644 0.052890157796909698 -0.076097769215718064 -0.0062242473687851747 0.0031166408174816375 -0.033209192483398063 -0.042648936200939791 0.03700918977247096 0.031877471099484855 0.047872027827276911 0.032677308460387633 -0.0073309010863904477 -0.052686541414681612 0.084849008028525963 -0.097953218162405556 -0.0004788651499892538 0.09240942108876761 0.069518553802288705 -0.055153274022066615 -0.11538640051408816 -0.064278566382941521
leaf_weight=6.7947055920958537 22.079632371664047 11.103696681559088 11.382563337683676 21.674676671624184 12.482817575335504 23.248639419674873 11.971241116523744 16.10064609348774 13.33426369726658 12.580829501152037 18.409288823604584 15.68454350531101 19.047321282327179 15.982891693711283 11.861744754016398 17.878036737442017 14.901784822344778 17.371976211667064 17.782985925674438 10.636879436671732 12.656921818852423 11.084715366363524 11.722340129315851 16.384411454200745 18.159326657652855 7.5446762740612021 16.050698347389698 5.9564740508794785
leaf_count=56 96 66 46 92 93 98 51 67 56 54 84 65 93 69 66 81 69 73 76 65 52 58 53 71 81 50 140 50
internal_value=-0.00219846 0.00706294 0.0123067 -0.00903041 -0.0516398 0.022003 0.0302238 0.0135132 -0.0029124 -0.02529 0.0226921 0.0242968 -0.0275137 -0.0445629 -0.00590707 0.0368889 0.0467919 0.0358269 0.0176017 -0.0920485 0.0552078 -0.0659424 0.0276221 0.0704805 0.0512615 -0.084318 -0.106007 -0.092616
internal_weight=421.871 382.432 351.301 109.443 31.1312 241.858 182.141 91.0712 59.7171 34.6605 40.084 74.9705 69.3592 38.4502 30.9091 51.7219 91.0693 62.7137 32.6848 39.4388 30.0289 27.0676 25.0566 28.3557 36.0374 20.0275 28.8019 12.7512
internal_count=2071 1760 1551 508 209 1043 784 392 259 150 176 325 332 173 159 227 392 270 145 311 125 127 109 122 162 143 246 106
is_linear=0
shrinkage=0.1


Tree=16
num_leaves=31
num_cat=0
split_feature=4 0 13 4 0 4 1 1 5 16 4 11 4 16 12 16 15 4 12 12 4 4 16 0 5 4 4 4 4 7
split_gain=30.5729 11.4914 5.30044 3.9083 3.85783 4.61794 4.93037 3.28106 3.25402 3.38218 3.05894 3.6649 3.03184 2.93133 2.88452 4.07046 2.75672 2.02276 1.82101 6.20568 3.07162 2.8118 3.17965 1.54407 1.24655 1.40654 1.79093 1.79156 1.66464 0.1197
threshold=3.5000000000000004 2.5000000000000004 15.500000000000002 61.500000000000007 6.5000000000000009 14.500000000000002 2442961.0000000005 1527319.5000000002 2.5000000000000004 29979.971149503166 53.500000000000007 126013.50000000001 115.50000000000001 24559.656354515053 123035.3388888889 51364.597014925377 237988.00000000003 1.0000000180025095e-35 7475.477272727273 17597.534482758627 86.500000000000014 117.50000000000001 12954.103338068184 3.5000000000000004 9.5000000000000018 178.50000000000003 197.50000000000003 236.50000000000003 275.50000000000006 918736.50000000012
decision_type=2 2 2 2 2 2 2 2 2 2 2 2 2 2 2 2 2 2 2 2 2 2 2 2 2 2 2 2 2 2
left_child=17 8 7 4 5 -4 -7 16 -2 13 -11 12 -12 18 15 -9 -3 -1 20 -20 -10 -22 24 -19 25 -23 -27 -28 -29 -6
right_child=1 2 3 -5 29 6 -8 14 9 10 11 -13 -14 -15 -16 -17 -18 23 19 -21 21 22 -24 -25 -26 26 27 28 -30 -31
leaf_value=-0.10930528933503661 0.066769397757794405 -0.0091526723632125544 0.026308057001566239 0.018193060412773018 -0.1039319669899272 -0.09269818667048052 -0.00070036129733602867 -0.0010042853652357342 0.068222332356321677 -0.036051246760788316 -0.046505883993421059 0.056642636670452641 0.016767900437847233 0.06240107699953909 0.017611560618351712 -0.084206896275440299 0.042469603951775299 -0.025924965509631449 -0.050749331009539392 0.044333337905243256 -0.022137271508439266 -0.01933859561315272 0.069810252665300651 -0.091256813394583691 0.04572443947719762 0.05341751054776829 -0.01575029298827383 0.05163888704458558 0 -0.069650096340530751
leaf_weight=21.37812527269125 13.721844241023062 18.160825327038765 9.517488092184065 9.47832342982292 9.9462354481220228 14.265376165509226 10.173458002507685 12.339114524424078 14.28109000623226 19.398402944207191 11.884958341717718 12.710091054439543 20.238851875066757 17.907116577029228 11.97628442943096 11.584761396050451 23.068074777722359 7.9238082841038686 13.87374757230282 13.358460322022436 14.354705378413199 11.881094157695768 13.5572013258934 7.7734363377094269 12.850579187273977 11.408395022153853 17.436670586466789 12.383056536316873 12.803969308733938 4.909333996474742
leaf_count=201 62 77 49 46 89 74 55 58 60 81 50 53 87 78 56 55 99 43 59 57 59 51 63 67 55 50 79 55 55 48
internal_value=-0.00204764 0.00640477 -0.0169093 -0.03964 -0.0510888 -0.0318831 -0.0549675 0.000169054 0.0193839 0.0164898 -0.00285511 0.0113337 -0.00640307 0.0240282 -0.0217707 -0.0418929 0.0195215 -0.0886123 0.0192848 -0.00375015 0.0245523 0.018554 0.0250062 -0.0592839 0.0170888 0.0112936 0.0182373 0.00848418 0.0256528 -0.0938129
internal_weight=416.545 379.47 135.419 58.2902 48.8119 33.9563 24.4388 77.1291 244.05 230.328 64.2323 44.8339 32.1238 166.096 35.9002 23.9239 41.2289 37.0754 148.189 27.2322 120.957 106.676 92.321 15.6972 78.7638 65.9132 54.0321 42.6237 25.187 14.8556
internal_count=2071 1760 706 361 315 178 129 345 1054 992 271 190 137 721 169 113 176 311 643 116 527 467 408 110 345 290 239 189 110 137
is_linear=0
shrinkage=0.1


Tree=17
num_leaves=31
num_cat=0
split_feature=4 0 15 16 15 12 16 16 17 2 4 11 16 1 2 2 17 1 2 4 2 17 2 15 4 15 1 1 2 0
split_gain=26.5623 9.46873 5.53073 3.71898 6.67086 4.41431 2.80978 4.06666 5.7997 3.42766 2.74535 4.9304 4.87524 4.77242 3.36843 2.83769 4.22347 3.32957 2.78042 2.05778 1.85038 1.84804 1.83368 1.74903 1.73258 3.64352 2.63111 2.71064 0.562488 0.31877
threshold=3.5000000000000004 3.5000000000000004 5180709.5000000009 129134.15546055189 1208228.0000000002 29408.010849909588 12591.411764705883 26891.574675324679 29.500000000000004 5763.1852534562222 96.500000000000014 30119.500000000004 7741.2500000000009 561688.00000000012 17704.266922094514 3710.8666666666672 22.500000000000004 198867.00000000003 24758.156118143463 1.5000000000000002 290731.26315789478 10.500000000000002 15387.792553191492 857033.50000000012 128.50000000000003 281087.50000000006 306608.50000000006 652348.50000000012 70297.602564102577 2.5000000000000004
decision_type=2 2 2 2 2 2 2 2 2 2 2 2 2 2 2 2 2 2 2 2 2 2 2 2 2 2 2 2 2 2
left_child=19 3 6 4 10 -6 9 23 -9 -3 11 -2 -13 14 -14 -12 17 22 -15 29 -4 -5 -17 -8 -19 26 -26 -28 -29 -1
right_child=1 2 20 21 5 -7 7 8 -10 -11 15 12 13 18 -16 16 -18 24 -20 -21 -22 -23 -24 -25 25 -27 27 28 -30 -31
leaf_value=-0.078530141993372535 -0.054250695425604095 -0.021908630683722022 -0.10930126611157634 0.026458711796208841 -0.081975129080777073 -0.00066341736549787331 -0.024436626345738913 -0.037887741759101597 0.058533247690604986 0.060416457229345605 -0.010464922009566934 0.062342253649280643 -0.067210987277307108 0.064726177294437734 -0.00017576793471095681 0.03088432933959084 0.076352193625484358 -0.021940125637654066 0.0024697778480941516 -0.044678365459114758 -0.0378815714034514 0.077738494072241204 0.084487043378699125 -0.085036857485683057 -0.030352616621378267 0.069698304874729694 0.047788724621883216 0.012125539968257742 -0.018656649972690901 -0.11178207235997545
leaf_weight=8.4547065645456332 13.181243389844893 9.6463472321629542 8.496856056153776 19.112515896558765 11.833418279886248 15.73214031755924 9.5087277814745921 15.00571081787348 10.516202062368391 10.183974109590052 19.890105500817299 15.14958620071411 12.875881314277651 11.955464810132982 18.465296551585197 18.135822221636776 16.940753325819969 12.570441558957098 18.614834487438202 10.033337235450743 7.5245395824313155 12.108638554811476 10.819266393780707 11.067816093564032 13.651029035449026 11.318394005298613 19.014042466878891 11.828812375664713 11.485426560044287 16.326049625873566
leaf_count=74 55 51 67 81 56 70 43 73 71 55 84 65 54 52 78 81 73 53 81 65 45 51 54 70 58 51 87 50 51 172
internal_value=-0.00191164 0.00579708 -0.0242058 0.01418 0.0102542 -0.0361007 -0.011171 -0.0247931 0.00152524 0.0199591 0.0157264 0.00189632 0.0116877 -0.000626648 -0.02816 0.0242192 0.029788 0.0223841 0.0272748 -0.0853719 -0.0768219 0.0468508 0.0514794 -0.0577699 0.0116597 0.0181074 0.00739228 0.0198437 -0.00262669 -0.1012
internal_weight=411.447 376.633 81.9502 294.683 263.462 27.5656 65.9288 46.0985 25.5219 19.8303 235.896 90.2423 77.0611 61.9115 31.3412 145.654 125.764 108.823 30.5703 34.8141 16.0214 31.2212 28.9551 20.5765 79.8681 67.2977 55.9793 42.3283 23.3142 24.7808
internal_count=2071 1760 475 1285 1153 126 363 257 144 106 1027 385 330 265 132 642 558 485 133 311 112 132 135 113 350 297 246 188 101 246
is_linear=0
shrinkage=0.1


Tree=18
num_leaves=29
num_cat=0
split_feature=4 5 11 0 5 13 14 5 16 17 12 4 16 4 10 16 17 17 16 16 16 4 4 8 4 4 4 4
split_gain=23.0369 8.27633 5.62981 4.3026 3.43901 4.32474 3.57635 2.67982 2.55865 3.36477 3.31734 3.50153 2.50328 2.15355 2.1424 2.12424 2.24483 1.71389 1.60101 3.30753 2.07377 3.90012 1.14417 0.917747 0.683193 0.846575 0.539428 0.0628339
threshold=3.5000000000000004 238.50000000000003 757898.00000000012 2.5000000000000004 194.50000000000003 15.500000000000002 2.5000000000000004 2.5000000000000004 29979.971149503166 7.5000000000000009 47782.121212121223 114.50000000000001 24559.656354515053 1.0000000180025095e-35 2.5000000000000004 55491.588836477997 18.500000000000004 36.500000000000007 20481.533026113673 15427.780361757108 6401.1477010474 97.500000000000014 107.50000000000001 44048.417129629634 206.50000000000003 275.50000000000006 236.50000000000003 186.50000000000003
decision_type=2 2 2 2 2 2 2 2 2 2 2 2 2 2 2 2 2 2 2 2 2 2 2 2 2 2 2 2
left_child=13 3 -3 7 5 15 -6 -2 12 -10 11 -11 18 -1 -7 16 -5 -15 19 20 22 -22 -9 -4 27 26 -26 -24
right_child=1 2 23 4 6 14 -8 8 9 10 -12 -13 -14 17 -16 -17 -18 -19 -20 -21 21 -23 24 -25 25 -27 -28 -29
leaf_value=-0.10559545885745872 0.060176824345427399 0.011903273105092914 -0.11772005994590587 -0.011744734125275718 -0.017053587761212557 -0.070205257094316006 0.056903617715047296 0.047766325865320425 -0.0386222780835251 -0.035132192837380331 0.052628615447452703 0.032463995584687294 0.05622241152868647 -0.022812978706753122 -0.010031606983278811 -0.03241569170342732 0.034164472565474967 -0.095685993938978087 -0.01904854875512494 0.059619511766729652 -0.040820965801328615 0.031430014317543463 0.0076427298881555838 -0.060735448062559476 0.018637316524838146 0.001322278789803891 0.046792133716541673 -0.0011186682230505806
leaf_weight=18.214389637112617 13.344224676489828 8.1362596973776835 7.2813318446278554 21.667995184659958 11.344641983509065 17.780011452734474 14.730795823037623 13.615131407976149 18.696832537651062 17.858165189623836 13.690150231122969 13.187295436859129 17.667587906122208 9.0510373786091787 9.525895453989504 15.944899931550024 20.398776933550835 5.4845873787999144 11.558160051703451 17.642307609319687 17.14463979005814 12.974804803729056 16.186838343739513 7.0571993663907051 16.036831080913547 12.974960058927534 14.827142119407652 13.041093677282332
leaf_count=201 62 51 63 92 53 95 89 57 80 75 57 57 78 57 54 73 88 53 52 78 73 56 70 53 73 56 67 58
internal_value=-0.00179002 0.00523007 -0.0534042 0.00901804 -0.00716203 -0.0169435 0.0244028 0.0165553 0.0139228 -0.00298699 0.0117363 -0.00608599 0.0205353 -0.0821018 -0.0496913 -0.00129812 0.0103084 -0.0514586 0.0161129 0.0192219 0.0129888 -0.00936488 0.0208731 -0.0909806 0.0156667 0.0235898 0.0325934 0.00340206
internal_weight=407.064 374.314 22.4748 351.839 111.393 85.3176 26.0754 240.446 227.102 63.4324 44.7356 31.0455 163.669 32.75 27.3059 58.0117 42.0668 14.5356 146.002 134.444 116.801 30.1194 86.682 14.3385 73.0669 43.8389 30.864 29.2279
internal_count=2071 1760 167 1593 544 402 142 1049 987 269 189 132 718 311 149 253 180 110 640 588 510 129 381 116 324 196 140 128
is_linear=0
shrinkage=0.1


Tree=19
num_leaves=31
num_cat=0
split_feature=4 5 9 7 15 15 4 4 2 5 10 12 4 4 17 4 4 5 2 2 5 4 4 13 4 5 16 4 4 4
split_gain=20.4108 7.93243 3.54317 2.77834 3.73183 5.20145 5.70458 9.58719 4.89496 3.66366 2.64326 2.53535 2.29727 3.74533 2.26808 2.93732 3.23534 2.55388 1.79613 3.11533 1.64947 1.84277 1.94562 1.59916 2.07835 1.63876 1.45731 0.745816 0.54413 0.212106
threshold=1.5000000000000002 238.50000000000003 27.500000000000004 542661.00000000012 834649.50000000012 722108.00000000012 63.000000000000007 45.500000000000007 16245.343267581477 15.500000000000002 1.5000000000000002 57633.904761904771 86.500000000000014 96.500000000000014 28.500000000000004 193.50000000000003 210.00000000000003 7.5000000000000009 6392.039772727273 24026.308784383324 89.500000000000014 134.50000000000003 165.50000000000003 15.500000000000002 102.50000000000001 148.50000000000003 117540.91722408029 6.5000000000000009 262.00000000000006 1.0000000180025095e-35
decision_type=2 2 2 2 2 2 2 2 2 2 2 2 2 2 2 2 2 2 2 2 2 2 2 2 2 2 2 2 2 2
left_child=29 2 3 4 5 6 7 8 -2 26 -3 23 -8 -14 15 17 -17 -15 -18 -20 21 -19 -23 24 -11 -25 -6 -12 -21 -1
right_child=1 10 -4 -5 9 -7 12 -9 -10 11 27 -13 13 14 -16 16 18 20 19 28 -22 22 -24 25 -26 -27 -28 -29 -30 -31
leaf_value=-0.10382217100355809 -0.033409436164894939 -0.0037745989740345198 -0.047209788546272995 0.04737280381971657 -0.00043767201405660555 0.076946626538778817 0.047861955909534702 -0.089029850279940592 0.04544800716561985 0.010876389827498632 -0.039925637594836999 0.0052052506531308886 -0.038246760945711777 -0.0050801903511404171 -0.021098451622173886 -0.042700049848229615 -0.017116380161208321 0.023178608106202571 0.060020171251090659 -0.012152614925726604 0.017371129142532981 0.1030633996086662 0.047489905236647444 -0.082366376257596283 -0.049322536516007709 -0.022471695679199898 0.047015516680138141 -0.091457208317043626 0.01820206751418986 -0.066823300899180885
leaf_weight=16.749870114028457 14.296031624078752 8.059292636811735 11.346458651125429 18.084827750921249 13.286495819687845 12.227127984166144 22.752649009227753 14.296579390764235 17.128862172365189 11.483136147260668 5.2719605751335612 20.323014281690121 12.576925337314604 12.144847467541693 13.038301959633825 10.994396701455114 11.67873679101467 13.407521978020666 16.524110913276672 11.446284651756288 17.200677588582039 11.157548636198046 17.750760793685913 11.6951841711998 10.905496835708616 8.5205537453293783 11.799491554498671 10.660571079701183 11.722451284527777 4.5330120623111716
leaf_count=201 64 44 63 90 55 53 96 64 75 53 54 95 52 54 54 49 50 58 79 51 73 54 81 63 50 55 50 93 53 45
internal_value=-0.00166731 0.00363146 0.0073939 0.00922421 0.00707889 0.013547 0.0100727 -0.0213802 0.00926424 -0.0104658 -0.0518603 -0.0234148 0.0180192 0.0136761 0.0182074 0.0221185 0.00604036 0.0359439 0.0167286 0.026956 0.0444774 0.055193 0.0695653 -0.0372815 -0.0180908 -0.057849 0.0215835 -0.0753849 0.0027881 -0.0967589
internal_weight=403.063 381.78 357.788 346.442 328.357 240.344 228.117 45.7215 31.4249 88.0134 23.9918 62.9274 182.395 159.643 147.066 134.027 62.366 71.6614 51.3716 39.6928 59.5165 42.3158 28.9083 42.6044 22.3886 20.2157 25.086 15.9325 23.1687 21.2829
internal_count=2071 1825 1634 1571 1481 1060 1007 203 139 421 191 316 804 708 656 602 282 320 233 183 266 193 135 221 103 118 105 147 104 246
is_linear=0
shrinkage=0.1


end of trees

feature_importances:
recency_at_cutoff=99
monetary_total=77
tenure_days=77
avg_order_value=73
monetary_180d=42
uniq_items_180d=37
freq_total=34
avg_order_180d=34
monetary_90d=25
avg_order_90d=21
uniq_items_90d=16
monetary_30d=14
uniq_items_30d=8
avg_order_30d=7
freq_90d=4
freq_180d=4

parameters:
[boosting: gbdt]
[objective: binary]
[metric: auc]
[tree_learner: serial]
[device_type: cpu]
[data_sample_strategy: bagging]
[data: ]
[valid: ]
[num_iterations: 1000]
[learning_rate: 0.1]
[num_leaves: 31]
[num_threads: 0]
[seed: 42]
[deterministic: 0]
[force_col_wise: 0]
[force_row_wise: 0]
[histogram_pool_size: -1]
[max_depth: -1]
[min_data_in_leaf: 50]
[min_sum_hessian_in_leaf: 0.001]
[bagging_fraction: 0.8]
[pos_bagging_fraction: 1]
[neg_bagging_fraction: 1]
[bagging_freq: 5]
[bagging_seed: 400]
[bagging_by_query: 0]
[feature_fraction: 0.8]
[feature_fraction_bynode: 1]
[feature_fraction_seed: 30056]
[extra_trees: 0]
[extra_seed: 12879]
[early_stopping_round: 0]
[early_stopping_min_delta: 0]
[first_metric_only: 0]
[max_delta_step: 0]
[lambda_l1: 0.1]
[lambda_l2: 0.1]
[linear_lambda: 0]
[min_gain_to_split: 0]
[drop_rate: 0.1]
[max_drop: 50]
[skip_drop: 0.5]
[xgboost_dart_mode: 0]
[uniform_drop: 0]
[drop_seed: 17869]
[top_rate: 0.2]
[other_rate: 0.1]
[min_data_per_group: 100]
[max_cat_threshold: 32]
[cat_l2: 10]
[cat_smooth: 10]
[max_cat_to_onehot: 4]
[top_k: 20]
[monotone_constraints: ]
[monotone_constraints_method: basic]
[monotone_penalty: 0]
[feature_contri: ]
[forcedsplits_filename: ]
[refit_decay_rate: 0.9]
[cegb_tradeoff: 1]
[cegb_penalty_split: 0]
[cegb_penalty_feature_lazy: ]
[cegb_penalty_feature_coupled: ]
[path_smooth: 0]
[interaction_constraints: ]
[verbosity: -1]
[saved_feature_importance_type: 0]
[use_quantized_grad: 0]
[num_grad_quant_bins: 4]
[quant_train_renew_leaf: 0]
[stochastic_rounding: 1]
[linear_tree: 0]
[max_bin: 255]
[max_bin_by_feature: ]
[min_data_in_bin: 3]
[bin_construct_sample_cnt: 200000]
[data_random_seed: 175]
[is_enable_sparse: 1]
[enable_bundle: 1]
[use_missing: 1]
[zero_as_missing: 0]
[feature_pre_filter: 1]
[pre_partition: 0]
[two_round: 0]
[header: 0]
[label_column: ]
[weight_column: ]
[group_column: ]
[ignore_column: ]
[categorical_feature: ]
[forcedbins_filename: ]
[precise_float_parser: 0]
[parser_config_file: ]
[objective_seed: 16083]
[num_class: 1]
[is_unbalance: 0]
[scale_pos_weight: 1]
[sigmoid: 1]
[boost_from_average: 1]
[reg_sqrt: 0]
[alpha: 0.9]
[fair_c: 1]
[poisson_max_delta_step: 0.7]
[tweedie_variance_power: 1.5]
[lambdarank_truncation_level: 30]
[lambdarank_norm: 1]
[label_gain: ]
[lambdarank_position_bias_regularization: 0]
[eval_at: ]
[multi_error_top_k: 1]
[auc_mu_weights: ]
[num_machines: 1]
[local_listen_port: 12400]
[time_out: 120]
[machine_list_filename: ]
[machines: ]
[gpu_platform_id: -1]
[gpu_device_id: -1]
[gpu_use_dp: 0]
[num_gpu: 1]

end of parameters

pandas_categorical:[]
